FANN_FLO_2.1
num_layers=3
learning_rate=0.700000
connection_rate=1.000000
network_type=0
learning_momentum=0.000000
training_algorithm=2
train_error_function=1
train_stop_function=0
cascade_output_change_fraction=0.010000
quickprop_decay=-0.000100
quickprop_mu=1.750000
rprop_increase_factor=1.200000
rprop_decrease_factor=0.500000
rprop_delta_min=0.000000
rprop_delta_max=50.000000
rprop_delta_zero=0.100000
cascade_output_stagnation_epochs=12
cascade_candidate_change_fraction=0.010000
cascade_candidate_stagnation_epochs=12
cascade_max_out_epochs=150
cascade_min_out_epochs=50
cascade_max_cand_epochs=150
cascade_min_cand_epochs=50
cascade_num_candidate_groups=2
bit_fail_limit=3.49999994039535520000e-001
cascade_candidate_limit=1.00000000000000000000e+003
cascade_weight_multiplier=4.00000005960464480000e-001
cascade_activation_functions_count=10
cascade_activation_functions=3 5 7 8 10 11 14 15 16 17 
cascade_activation_steepnesses_count=4
cascade_activation_steepnesses=2.50000000000000000000e-001 5.00000000000000000000e-001 7.50000000000000000000e-001 1.00000000000000000000e+000 
layer_sizes=24 9 2 
scale_included=0
neurons (num_inputs, activation_function, activation_steepness)=(0, 0, 0.00000000000000000000e+000) (0, 0, 0.00000000000000000000e+000) (0, 0, 0.00000000000000000000e+000) (0, 0, 0.00000000000000000000e+000) (0, 0, 0.00000000000000000000e+000) (0, 0, 0.00000000000000000000e+000) (0, 0, 0.00000000000000000000e+000) (0, 0, 0.00000000000000000000e+000) (0, 0, 0.00000000000000000000e+000) (0, 0, 0.00000000000000000000e+000) (0, 0, 0.00000000000000000000e+000) (0, 0, 0.00000000000000000000e+000) (0, 0, 0.00000000000000000000e+000) (0, 0, 0.00000000000000000000e+000) (0, 0, 0.00000000000000000000e+000) (0, 0, 0.00000000000000000000e+000) (0, 0, 0.00000000000000000000e+000) (0, 0, 0.00000000000000000000e+000) (0, 0, 0.00000000000000000000e+000) (0, 0, 0.00000000000000000000e+000) (0, 0, 0.00000000000000000000e+000) (0, 0, 0.00000000000000000000e+000) (0, 0, 0.00000000000000000000e+000) (0, 0, 0.00000000000000000000e+000) (24, 0, 5.00000000000000000000e-001) (24, 0, 5.00000000000000000000e-001) (24, 0, 5.00000000000000000000e-001) (24, 0, 5.00000000000000000000e-001) (24, 0, 5.00000000000000000000e-001) (24, 0, 5.00000000000000000000e-001) (24, 0, 5.00000000000000000000e-001) (24, 0, 5.00000000000000000000e-001) (0, 0, 0.00000000000000000000e+000) (9, 0, 5.00000000000000000000e-001) (0, 0, 0.00000000000000000000e+000) 
connections (connected_to_neuron, weight)=(0, 8.62060561776161190000e-002) (1, 3.84521484375000000000e-003) (2, -9.06616225838661190000e-002) (3, -5.55358901619911190000e-002) (4, -9.63134765625000000000e-002) (5, -2.60559078305959700000e-002) (6, -5.68237295374274250000e-003) (7, -8.49426314234733580000e-002) (8, 8.13537612557411190000e-002) (9, 7.45483413338661190000e-002) (10, 8.58154296875000000000e-002) (11, -2.18261722475290300000e-002) (12, -7.35656768083572390000e-002) (13, 9.42321792244911190000e-002) (14, -1.26220704987645150000e-002) (15, -8.45153853297233580000e-002) (16, 1.70532222837209700000e-002) (17, 2.91931163519620900000e-002) (18, 1.87011715024709700000e-002) (19, -5.70373535156250000000e-002) (20, 7.99804702401161190000e-002) (21, 7.49816894531250000000e-002) (22, -3.44970710575580600000e-002) (23, 8.64135771989822390000e-002) (0, -1.08886724337935450000e-002) (1, 5.61157241463661190000e-002) (2, -8.43627974390983580000e-002) (3, 9.79614257812500000000e-002) (4, -5.91308586299419400000e-002) (5, -7.51586928963661190000e-002) (6, 8.78601074218750000000e-002) (7, -5.10864285752177240000e-003) (8, -3.71887199580669400000e-002) (9, 6.02844245731830600000e-002) (10, 5.93811050057411190000e-002) (11, 1.91650388296693560000e-003) (12, 1.17309568449854850000e-002) (13, -8.05664050858467820000e-004) (14, 9.84985381364822390000e-002) (15, -2.17041019350290300000e-002) (16, 1.74072273075580600000e-002) (17, -7.03063979744911190000e-002) (18, 8.58764629811048510000e-003) (19, -8.91174301505088810000e-002) (20, -7.16613754630088810000e-002) (21, -2.09838878363370900000e-002) (22, -1.03637697175145150000e-002) (23, -4.54895012080669400000e-002) (0, -8.43200683593750000000e-002) (1, 2.67822276800870900000e-002) (2, -7.63854980468750000000e-002) (3, 8.48388706799596550000e-004) (4, -8.38012713938951490000e-003) (5, 7.47985839843750000000e-002) (6, -1.00585939362645150000e-002) (7, 5.70556633174419400000e-002) (8, -1.53198244515806440000e-003) (9, -9.51721221208572390000e-002) (10, 1.72607433050870900000e-002) (11, 1.54113769531250000000e-002) (12, 2.46948245912790300000e-002) (13, 5.54626472294330600000e-002) (14, 7.78137221932411190000e-002) (15, 9.52575728297233580000e-002) (16, 4.18701162561774250000e-003) (17, 4.93713393807411190000e-002) (18, -6.94030746817588810000e-002) (19, -6.15844726562500000000e-002) (20, -4.50866706669330600000e-002) (21, -9.77478027343750000000e-002) (22, 1.96655280888080600000e-002) (23, 3.94104011356830600000e-002) (0, 1.33605962619185450000e-002) (1, 4.45983894169330600000e-002) (2, 3.37036140263080600000e-002) (3, 9.16442871093750000000e-002) (4, -7.91381821036338810000e-002) (5, 8.76586958765983580000e-002) (6, -6.67907744646072390000e-002) (7, -6.90734907984733580000e-002) (8, -8.18298384547233580000e-002) (9, -3.52417007088661190000e-002) (10, 5.14831542968750000000e-002) (11, 5.74279800057411190000e-002) (12, -9.55627486109733580000e-002) (13, 7.92968794703483580000e-002) (14, -2.42797862738370900000e-002) (15, 1.74865722656250000000e-002) (16, 1.69677734375000000000e-002) (17, -9.41772479563951490000e-003) (18, 1.44165037199854850000e-002) (19, 2.63427738100290300000e-002) (20, 8.78356918692588810000e-002) (21, 6.88476562500000000000e-002) (22, -4.26574721932411190000e-002) (23, -8.67919921875000000000e-002) (0, -6.61865249276161190000e-002) (1, 5.06591796875000000000e-002) (2, -6.56311064958572390000e-002) (3, -3.01696788519620900000e-002) (4, -6.43798857927322390000e-002) (5, -7.40661621093750000000e-002) (6, 7.93518051505088810000e-002) (7, -1.62048339843750000000e-002) (8, 6.30065947771072390000e-002) (9, 8.78784209489822390000e-002) (10, 5.35278348252177240000e-003) (11, 3.78906242549419400000e-002) (12, 1.70288083609193560000e-003) (13, -2.29553226381540300000e-002) (14, -2.56347656250000000000e-003) (15, -4.33105491101741790000e-002) (16, -6.13830573856830600000e-002) (17, -4.92004416882991790000e-002) (18, -7.06848129630088810000e-002) (19, -1.82983409613370900000e-002) (20, 6.14440925419330600000e-002) (21, 9.42993164062500000000e-003) (22, 1.00036626681685450000e-002) (23, -4.37622070312500000000e-002) (0, -7.09777846932411190000e-002) (1, -8.98986831307411190000e-002) (2, -3.30871604382991790000e-002) (3, 1.31835939828306440000e-003) (4, -3.13781760632991790000e-002) (5, -9.99816879630088810000e-002) (6, -2.85766609013080600000e-002) (7, -3.61633300781250000000e-002) (8, 5.64270019531250000000e-002) (9, -6.71386733301915230000e-005) (10, -8.66760239005088810000e-002) (11, 1.82739254087209700000e-002) (12, 3.74938957393169400000e-002) (13, 6.93115219473838810000e-002) (14, -6.96655288338661190000e-002) (15, -9.68933105468750000000e-002) (16, -5.86059577763080600000e-002) (17, -1.56250000000000000000e-002) (18, -1.03149411734193560000e-003) (19, -2.67028808593750000000e-002) (20, -5.01770041882991790000e-002) (21, -3.96911613643169400000e-002) (22, 9.29260253906250000000e-002) (23, -4.99816909432411190000e-002) (0, 7.23937973380088810000e-002) (1, -5.11840842664241790000e-002) (2, -8.46435576677322390000e-002) (3, -5.10864257812500000000e-002) (4, -1.30920410156250000000e-002) (5, -5.76171875000000000000e-002) (6, -8.88000503182411190000e-002) (7, 6.80786147713661190000e-002) (8, 3.17382829962298270000e-004) (9, -8.36425796151161190000e-002) (10, -3.41735854744911190000e-002) (11, -8.28613266348838810000e-002) (12, -1.33789060637354850000e-002) (13, 4.02221679687500000000e-002) (14, 9.62768569588661190000e-002) (15, -3.15185561776161190000e-002) (16, 5.80139160156250000000e-002) (17, 8.92333984375000000000e-002) (18, -5.86669929325580600000e-002) (19, -8.78784209489822390000e-002) (20, 2.54272464662790300000e-002) (21, 8.77075195312500000000e-002) (22, -4.33410666882991790000e-002) (23, 9.52392593026161190000e-002) (0, 4.82788076624274250000e-003) (1, -8.47961455583572390000e-002) (2, -7.87475630640983580000e-002) (3, 2.77954097837209700000e-002) (4, 2.54211425781250000000e-002) (5, -9.31640639901161190000e-002) (6, 6.15112297236919400000e-002) (7, 3.53698730468750000000e-002) (8, -3.89404292218387130000e-003) (9, -2.10266113281250000000e-002) (10, -8.78906284924596550000e-004) (11, 4.05517593026161190000e-002) (12, 8.63525420427322390000e-002) (13, -8.83850082755088810000e-002) (14, 2.89672855287790300000e-002) (15, -4.59533706307411190000e-002) (16, 7.77710005640983580000e-002) (17, -8.14086943864822390000e-002) (18, -6.65405318140983580000e-002) (19, 5.68664558231830600000e-002) (20, -5.73242194950580600000e-002) (21, -6.30187988281250000000e-002) (22, 3.93737815320491790000e-002) (23, 5.47241233289241790000e-002) (24, 5.81665057688951490000e-003) (25, -3.31481955945491790000e-002) (26, -7.64648467302322390000e-002) (27, -1.40136722475290300000e-002) (28, -5.44311515986919400000e-002) (29, 9.26940962672233580000e-002) (30, 7.35961943864822390000e-002) (31, 6.43493682146072390000e-002) (32, -9.15527343750000000000e-003) 
