FANN_FLO_2.1
num_layers=3
learning_rate=0.700000
connection_rate=1.000000
network_type=0
learning_momentum=0.000000
training_algorithm=2
train_error_function=1
train_stop_function=0
cascade_output_change_fraction=0.010000
quickprop_decay=-0.000100
quickprop_mu=1.750000
rprop_increase_factor=1.200000
rprop_decrease_factor=0.500000
rprop_delta_min=0.000000
rprop_delta_max=50.000000
rprop_delta_zero=0.100000
cascade_output_stagnation_epochs=12
cascade_candidate_change_fraction=0.010000
cascade_candidate_stagnation_epochs=12
cascade_max_out_epochs=150
cascade_min_out_epochs=50
cascade_max_cand_epochs=150
cascade_min_cand_epochs=50
cascade_num_candidate_groups=2
bit_fail_limit=3.49999994039535520000e-001
cascade_candidate_limit=1.00000000000000000000e+003
cascade_weight_multiplier=4.00000005960464480000e-001
cascade_activation_functions_count=10
cascade_activation_functions=3 5 7 8 10 11 14 15 16 17 
cascade_activation_steepnesses_count=4
cascade_activation_steepnesses=2.50000000000000000000e-001 5.00000000000000000000e-001 7.50000000000000000000e-001 1.00000000000000000000e+000 
layer_sizes=24 9 2 
scale_included=0
neurons (num_inputs, activation_function, activation_steepness)=(0, 0, 0.00000000000000000000e+000) (0, 0, 0.00000000000000000000e+000) (0, 0, 0.00000000000000000000e+000) (0, 0, 0.00000000000000000000e+000) (0, 0, 0.00000000000000000000e+000) (0, 0, 0.00000000000000000000e+000) (0, 0, 0.00000000000000000000e+000) (0, 0, 0.00000000000000000000e+000) (0, 0, 0.00000000000000000000e+000) (0, 0, 0.00000000000000000000e+000) (0, 0, 0.00000000000000000000e+000) (0, 0, 0.00000000000000000000e+000) (0, 0, 0.00000000000000000000e+000) (0, 0, 0.00000000000000000000e+000) (0, 0, 0.00000000000000000000e+000) (0, 0, 0.00000000000000000000e+000) (0, 0, 0.00000000000000000000e+000) (0, 0, 0.00000000000000000000e+000) (0, 0, 0.00000000000000000000e+000) (0, 0, 0.00000000000000000000e+000) (0, 0, 0.00000000000000000000e+000) (0, 0, 0.00000000000000000000e+000) (0, 0, 0.00000000000000000000e+000) (0, 0, 0.00000000000000000000e+000) (24, 0, 5.00000000000000000000e-001) (24, 0, 5.00000000000000000000e-001) (24, 0, 5.00000000000000000000e-001) (24, 0, 5.00000000000000000000e-001) (24, 0, 5.00000000000000000000e-001) (24, 0, 5.00000000000000000000e-001) (24, 0, 5.00000000000000000000e-001) (24, 0, 5.00000000000000000000e-001) (0, 0, 0.00000000000000000000e+000) (9, 0, 5.00000000000000000000e-001) (0, 0, 0.00000000000000000000e+000) 
connections (connected_to_neuron, weight)=(0, 3.67894858121871950000e-001) (1, 4.50573056936264040000e-001) (2, 3.88799399137496950000e-001) (3, 6.89423382282257080000e-002) (4, 6.81244730949401860000e-002) (5, 3.42072322964668270000e-002) (6, 4.09618467092514040000e-001) (7, -7.34099596738815310000e-002) (8, -1.63054876029491420000e-002) (9, 7.55219310522079470000e-002) (10, 3.61077219247817990000e-001) (11, 2.84911423921585080000e-001) (12, -3.09172905981540680000e-002) (13, 8.81012827157974240000e-002) (14, 5.55939488112926480000e-002) (15, -8.31206291913986210000e-002) (16, -7.04924911260604860000e-002) (17, 2.96038120985031130000e-001) (18, -4.05180938541889190000e-002) (19, 8.13141614198684690000e-002) (20, 7.55280405282974240000e-002) (21, 3.37267398834228520000e-001) (22, 3.63335520029067990000e-001) (23, 5.90522307902574540000e-003) (0, -1.28596454858779910000e-001) (1, -1.13410919904708860000e-001) (2, -1.03974908590316770000e-001) (3, 4.96481150388717650000e-001) (4, 5.20547389984130860000e-001) (5, 5.15695095062255860000e-001) (6, -1.78578138351440430000e-001) (7, 4.13003355264663700000e-001) (8, 4.79195982217788700000e-001) (9, 3.56118589639663700000e-001) (10, -1.72035157680511470000e-001) (11, -1.75709486007690430000e-001) (12, 5.16555666923522950000e-001) (13, 3.59683066606521610000e-001) (14, 4.58297550678253170000e-001) (15, 3.94015312194824220000e-001) (16, 4.45602238178253170000e-001) (17, -2.00398176908493040000e-001) (18, 4.18215751647949220000e-001) (19, 4.13912773132324220000e-001) (20, 4.92013365030288700000e-001) (21, -7.31826573610305790000e-002) (22, -7.18276649713516240000e-002) (23, 5.43527185916900630000e-001) (0, 4.56377506256103520000e-001) (1, 2.87499338388442990000e-001) (2, 2.81816929578781130000e-001) (3, 4.56818453967571260000e-002) (4, -3.09905447065830230000e-002) (5, 4.30085174739360810000e-002) (6, 4.34856504201889040000e-001) (7, -6.18255026638507840000e-002) (8, -3.95415313541889190000e-002) (9, 9.03473719954490660000e-002) (10, 3.42223465442657470000e-001) (11, 2.81786412000656130000e-001) (12, -9.40276235342025760000e-002) (13, 4.95636872947216030000e-002) (14, -9.23757720738649370000e-003) (15, 4.49250154197216030000e-002) (16, -3.18267382681369780000e-002) (17, 4.41314011812210080000e-001) (18, -4.91912290453910830000e-002) (19, -6.89994031563401220000e-003) (20, -1.86858586966991420000e-002) (21, 4.01177316904067990000e-001) (22, 3.13762754201889040000e-001) (23, 7.03461468219757080000e-002) (0, 4.59121525287628170000e-001) (1, 5.43398976325988770000e-001) (2, 5.03024041652679440000e-001) (3, -1.72810316085815430000e-001) (4, -1.68702661991119380000e-001) (5, -1.46809339523315430000e-001) (6, 4.68844413757324220000e-001) (7, -3.58779393136501310000e-002) (8, -2.13088691234588620000e-002) (9, -4.75539825856685640000e-002) (10, 4.98684525489807130000e-001) (11, 3.90713334083557130000e-001) (12, -1.53218030929565430000e-001) (13, -2.05244362354278560000e-001) (14, -1.45644890144467350000e-002) (15, -1.18586719036102290000e-001) (16, -2.59109139442443850000e-002) (17, 4.54971134662628170000e-001) (18, -2.85293161869049070000e-002) (19, -7.71621465682983400000e-002) (20, -6.87148720026016240000e-002) (21, 4.98721122741699220000e-001) (22, 3.69643986225128170000e-001) (23, -9.34707373380661010000e-002) (0, -7.51540809869766240000e-002) (1, -1.29621833562850950000e-001) (2, -1.08753956854343410000e-001) (3, 5.34365773200988770000e-001) (4, 5.46450734138488770000e-001) (5, 3.88833433389663700000e-001) (6, -1.59162849187850950000e-001) (7, 3.64053159952163700000e-001) (8, 4.20840263366699220000e-001) (9, 4.78829771280288700000e-001) (10, -1.79200708866119380000e-001) (11, -4.88173924386501310000e-002) (12, 4.54867362976074220000e-001) (13, 4.82357621192932130000e-001) (14, 3.93874943256378170000e-001) (15, 5.27255177497863770000e-001) (16, 4.73605155944824220000e-001) (17, -1.10572822391986850000e-001) (18, 4.56124693155288700000e-001) (19, 4.91354197263717650000e-001) (20, 5.46359181404113770000e-001) (21, -7.67226964235305790000e-002) (22, -1.98304682970047000000e-001) (23, 5.10018825531005860000e-001) (0, 2.68340378999710080000e-001) (1, 2.99309641122817990000e-001) (2, 3.57189267873764040000e-001) (3, -7.46123641729354860000e-002) (4, 9.75434333086013790000e-002) (5, 9.89533364772796630000e-002) (6, 3.08757871389389040000e-001) (7, 9.20380577445030210000e-002) (8, 6.98090195655822750000e-002) (9, -4.35027368366718290000e-002) (10, 4.40068930387496950000e-001) (11, 2.62664109468460080000e-001) (12, 5.02778105437755580000e-002) (13, 2.54242792725563050000e-002) (14, 2.82746031880378720000e-002) (15, 6.28571286797523500000e-002) (16, 4.56025116145610810000e-002) (17, 4.47387009859085080000e-001) (18, -7.86162465810775760000e-002) (19, 3.26241203583776950000e-003) (20, -7.97148793935775760000e-002) (21, 2.70397275686264040000e-001) (22, 2.64092296361923220000e-001) (23, 9.61518287658691410000e-002) (0, 4.12206381559371950000e-001) (1, 3.42241764068603520000e-001) (2, 2.72740989923477170000e-001) (3, 4.18000034987926480000e-002) (4, -2.91533805429935460000e-002) (5, -2.37151458859443660000e-002) (6, 2.90526658296585080000e-001) (7, -1.09648900106549260000e-002) (8, 1.15669891238212590000e-003) (9, 4.77997772395610810000e-002) (10, 4.53044980764389040000e-001) (11, 3.34117978811264040000e-001) (12, -8.57232976704835890000e-003) (13, 7.52594843506813050000e-002) (14, 3.93769256770610810000e-002) (15, 6.29587192088365550000e-003) (16, -9.07317250967025760000e-002) (17, 3.01775425672531130000e-001) (18, 4.00055758655071260000e-002) (19, -5.18889613449573520000e-002) (20, -5.46538606286048890000e-002) (21, 3.31273734569549560000e-001) (22, 3.28783512115478520000e-001) (23, -6.27129012718796730000e-003) (0, 4.30496037006378170000e-001) (1, 4.64108109474182130000e-001) (2, 4.58260923624038700000e-001) (3, -5.62514811754226680000e-002) (4, -6.83303624391555790000e-002) (5, -1.88728243112564090000e-001) (6, 3.88870060443878170000e-001) (7, -9.44045782089233400000e-002) (8, -2.03547596931457520000e-001) (9, -6.80557042360305790000e-002) (10, 3.83700400590896610000e-001) (11, 4.99477922916412350000e-001) (12, -7.40737617015838620000e-002) (13, -1.49586439132690430000e-001) (14, -1.88929677009582520000e-001) (15, -1.88954085111618040000e-001) (16, -1.87544167041778560000e-001) (17, 5.17489552497863770000e-001) (18, -1.27040058374404910000e-001) (19, -1.14399701356887820000e-001) (20, -1.61830097436904910000e-001) (21, 4.01919364929199220000e-001) (22, 3.60378861427307130000e-001) (23, -8.22890996932983400000e-002) (24, 3.56005191802978520000e-001) (25, 5.04977226257324220000e-001) (26, 3.33721250295639040000e-001) (27, -1.51307642459869380000e-001) (28, 4.58468437194824220000e-001) (29, 3.17504197359085080000e-001) (30, 2.79930979013442990000e-001) (31, -1.71888679265975950000e-001) (32, 4.14852738380432130000e-001) 
