FANN_FLO_2.1
num_layers=3
learning_rate=0.700000
connection_rate=1.000000
network_type=0
learning_momentum=0.000000
training_algorithm=2
train_error_function=1
train_stop_function=0
cascade_output_change_fraction=0.010000
quickprop_decay=-0.000100
quickprop_mu=1.750000
rprop_increase_factor=1.200000
rprop_decrease_factor=0.500000
rprop_delta_min=0.000000
rprop_delta_max=50.000000
rprop_delta_zero=0.100000
cascade_output_stagnation_epochs=12
cascade_candidate_change_fraction=0.010000
cascade_candidate_stagnation_epochs=12
cascade_max_out_epochs=150
cascade_min_out_epochs=50
cascade_max_cand_epochs=150
cascade_min_cand_epochs=50
cascade_num_candidate_groups=2
bit_fail_limit=3.49999994039535520000e-001
cascade_candidate_limit=1.00000000000000000000e+003
cascade_weight_multiplier=4.00000005960464480000e-001
cascade_activation_functions_count=10
cascade_activation_functions=3 5 7 8 10 11 14 15 16 17 
cascade_activation_steepnesses_count=4
cascade_activation_steepnesses=2.50000000000000000000e-001 5.00000000000000000000e-001 7.50000000000000000000e-001 1.00000000000000000000e+000 
layer_sizes=24 9 2 
scale_included=0
neurons (num_inputs, activation_function, activation_steepness)=(0, 0, 0.00000000000000000000e+000) (0, 0, 0.00000000000000000000e+000) (0, 0, 0.00000000000000000000e+000) (0, 0, 0.00000000000000000000e+000) (0, 0, 0.00000000000000000000e+000) (0, 0, 0.00000000000000000000e+000) (0, 0, 0.00000000000000000000e+000) (0, 0, 0.00000000000000000000e+000) (0, 0, 0.00000000000000000000e+000) (0, 0, 0.00000000000000000000e+000) (0, 0, 0.00000000000000000000e+000) (0, 0, 0.00000000000000000000e+000) (0, 0, 0.00000000000000000000e+000) (0, 0, 0.00000000000000000000e+000) (0, 0, 0.00000000000000000000e+000) (0, 0, 0.00000000000000000000e+000) (0, 0, 0.00000000000000000000e+000) (0, 0, 0.00000000000000000000e+000) (0, 0, 0.00000000000000000000e+000) (0, 0, 0.00000000000000000000e+000) (0, 0, 0.00000000000000000000e+000) (0, 0, 0.00000000000000000000e+000) (0, 0, 0.00000000000000000000e+000) (0, 0, 0.00000000000000000000e+000) (24, 0, 5.00000000000000000000e-001) (24, 0, 5.00000000000000000000e-001) (24, 0, 5.00000000000000000000e-001) (24, 0, 5.00000000000000000000e-001) (24, 0, 5.00000000000000000000e-001) (24, 0, 5.00000000000000000000e-001) (24, 0, 5.00000000000000000000e-001) (24, 0, 5.00000000000000000000e-001) (0, 0, 0.00000000000000000000e+000) (9, 0, 5.00000000000000000000e-001) (0, 0, 0.00000000000000000000e+000) 
connections (connected_to_neuron, weight)=(0, 1.37618529796600340000e+000) (1, 2.23305678367614750000e+000) (2, 1.17997395992279050000e+000) (3, -4.09608244895935060000e-001) (4, -2.72890448570251460000e-001) (5, 1.42003655433654790000e+000) (6, 9.88974571228027340000e-001) (7, -9.73451197147369380000e-001) (8, 4.61366236209869380000e-001) (9, 5.69689452648162840000e-001) (10, 1.49124312400817870000e+000) (11, 1.41381990909576420000e+000) (12, 2.60157823562622070000e+000) (13, 6.36414432525634770000e+000) (14, -4.31584686040878300000e-001) (15, 1.71705889701843260000e+000) (16, 4.47737932205200200000e-001) (17, -6.50991082191467290000e-001) (18, 1.51490545272827150000e+000) (19, 1.07573795318603520000e+000) (20, -1.48639410734176640000e-001) (21, 8.12120735645294190000e-001) (22, 1.48560714721679690000e+000) (23, 1.30637388229370120000e+001) (0, 2.30283737182617190000e-001) (1, -2.26439043879508970000e-001) (2, 5.40403425693511960000e-001) (3, -1.20164573192596440000e-001) (4, -3.14724653959274290000e-001) (5, 1.45045375823974610000e+000) (6, 6.23523652553558350000e-001) (7, 7.91322946548461910000e-001) (8, 8.15084397792816160000e-001) (9, -4.64534997940063480000e-001) (10, 4.84076254069805150000e-002) (11, 1.42142027616500850000e-001) (12, 4.41273510456085210000e-001) (13, -2.44881939888000490000e+000) (14, 3.31877768039703370000e-001) (15, 4.19416278600692750000e-003) (16, -7.92711898684501650000e-002) (17, 1.70500174164772030000e-001) (18, -5.54962110519409180000e+000) (19, 1.89817988872528080000e+000) (20, 1.21980345249176030000e+000) (21, 2.85910904407501220000e-001) (22, 5.44762387871742250000e-002) (23, 1.10727119445800780000e+000) (0, -2.72498875856399540000e-002) (1, 7.70284701138734820000e-003) (2, -6.07404895126819610000e-002) (3, -5.06312772631645200000e-003) (4, 8.63101333379745480000e-002) (5, -5.14804013073444370000e-002) (6, -4.70720455050468440000e-002) (7, 1.11604249104857440000e-002) (8, -2.85777319222688670000e-002) (9, 2.91615854948759080000e-002) (10, 2.84046046435832980000e-002) (11, -3.83121930062770840000e-002) (12, -2.89631122723221780000e-003) (13, -4.47943061590194700000e-002) (14, 2.02382784336805340000e-002) (15, -5.88378822430968280000e-003) (16, -2.29509808123111720000e-002) (17, 2.75378897786140440000e-002) (18, 8.97737666964530940000e-002) (19, -2.42438521236181260000e-002) (20, -2.73679140955209730000e-002) (21, -1.17791969387326390000e-004) (22, 2.69644968211650850000e-002) (23, 1.48958718776702880000e+000) (0, 8.97697865962982180000e-001) (1, 1.42329072952270510000e+000) (2, 8.77328455448150630000e-001) (3, 8.50942909717559810000e-001) (4, 3.77619206905364990000e-001) (5, 1.76157402992248540000e+000) (6, 7.19071805477142330000e-001) (7, -1.00475025177001950000e+000) (8, 8.03819835186004640000e-001) (9, 4.70628201961517330000e-001) (10, 1.35757315158843990000e+000) (11, 1.27179968357086180000e+000) (12, 2.06916785240173340000e+000) (13, 4.27654647827148440000e+000) (14, -2.54722088575363160000e-001) (15, 7.17280328273773190000e-001) (16, 2.16787770390510560000e-001) (17, -4.34491723775863650000e-001) (18, 1.10726818442344670000e-001) (19, 1.93129384517669680000e+000) (20, 1.57771140336990360000e-001) (21, 3.30761104822158810000e-001) (22, 1.20320045948028560000e+000) (23, 8.80165958404541020000e+000) (0, 5.22444963455200200000e-001) (1, 7.97934412956237790000e-001) (2, 9.12817567586898800000e-002) (3, 9.89072203636169430000e-001) (4, -2.86997288465499880000e-001) (5, 1.81563389301300050000e+000) (6, 2.49644711613655090000e-001) (7, -1.25056600570678710000e+000) (8, 7.45997488498687740000e-001) (9, 1.02189108729362490000e-001) (10, 1.06608414649963380000e+000) (11, 7.43203938007354740000e-001) (12, 1.85311925411224370000e+000) (13, 3.05447745323181150000e+000) (14, -4.80057716369628910000e-001) (15, 3.22812616825103760000e-001) (16, -2.42969412356615070000e-002) (17, -5.01986801624298100000e-001) (18, -8.31633269786834720000e-001) (19, 1.04590642452239990000e+000) (20, -4.31289263069629670000e-002) (21, 2.53211587667465210000e-001) (22, 4.70423519611358640000e-001) (23, 6.39058876037597660000e+000) (0, 1.34741559624671940000e-001) (1, 3.30991268157958980000e-001) (2, -5.73960006237030030000e-001) (3, 1.17100656032562260000e+000) (4, -2.04592919349670410000e+000) (5, 1.67382097244262700000e+000) (6, 6.03459596633911130000e-001) (7, -1.00139474868774410000e+000) (8, 6.40623390674591060000e-001) (9, -3.72742742300033570000e-001) (10, 1.15890836715698240000e+000) (11, 5.42581140995025630000e-001) (12, 1.25017571449279790000e+000) (13, 2.67551946640014650000e+000) (14, -5.99019289016723630000e-001) (15, 7.39538222551345830000e-002) (16, 2.63110786676406860000e-001) (17, -6.25421524047851560000e-001) (18, -1.00950217247009280000e+000) (19, -6.83981060981750490000e-001) (20, 5.18778674304485320000e-002) (21, 9.49860215187072750000e-002) (22, 1.97198353707790370000e-002) (23, 5.42578601837158200000e+000) (0, 3.56257200241088870000e-001) (1, 6.68065369129180910000e-001) (2, -9.02302742004394530000e-001) (3, 5.55932581424713130000e-001) (4, 4.51356142759323120000e-001) (5, 8.94244909286499020000e-001) (6, 5.38395404815673830000e-001) (7, -1.60976481437683110000e+000) (8, 1.23004272580146790000e-001) (9, 1.59730270504951480000e-001) (10, 8.15919637680053710000e-001) (11, 9.22258868813514710000e-002) (12, 1.51292562484741210000e+000) (13, 2.98628282546997070000e+000) (14, -7.67865300178527830000e-001) (15, 4.52657431364059450000e-001) (16, -4.40573453903198240000e-001) (17, -1.28031760454177860000e-001) (18, -6.43331050872802730000e-001) (19, 1.75045335292816160000e+000) (20, -6.97461366653442380000e-002) (21, 3.10171127319335940000e-001) (22, 2.85162568092346190000e-001) (23, 1.09532089233398440000e+001) (0, 2.62080341577529910000e-001) (1, 1.77293047308921810000e-001) (2, 3.73127192258834840000e-001) (3, -8.01607295870780940000e-002) (4, -5.39380729198455810000e-001) (5, 1.20185172557830810000e+000) (6, -6.63102194666862490000e-002) (7, -1.07834422588348390000e+000) (8, 8.75390291213989260000e-001) (9, -2.13496968150138850000e-001) (10, 4.73268359899520870000e-001) (11, 5.68471074104309080000e-001) (12, 1.08882141113281250000e+000) (13, 1.95838069915771480000e+000) (14, -1.01589381694793700000e+000) (15, 2.53652006387710570000e-001) (16, 4.33872044086456300000e-001) (17, -4.96532320976257320000e-001) (18, -1.26219093799591060000e+000) (19, 5.93679904937744140000e-001) (20, -1.76724284887313840000e-001) (21, -1.41890095546841620000e-002) (22, 3.17165613174438480000e-001) (23, 2.91378068923950200000e+000) (24, -3.22637293720617890000e-004) (25, 7.80702452175319190000e-004) (26, 8.68916362524032590000e-002) (27, -6.13026058999821540000e-005) (28, 2.60234664892777800000e-004) (29, 7.88339646533131600000e-004) (30, -2.32968726777471600000e-004) (31, 1.18037243373692040000e-003) (32, 8.56290996074676510000e-001) 
